<?xml version="1.0"?>
<opencv_storage>
<xml type_id="opencv-haar-classifier">
  <size>
    24 24</size>
  <stages>
    <_>
      <!-- stage 0 -->
      <trees>
        <_>
          <!-- tree 0 -->
          <_>
            <!-- root node -->
            <feature>
              <rects>
                <_>
                  0 0 12 10 -1.</_>
                <_>
                  0 0 6 5 2.</_>
                <_>
                  6 5 6 5 2.</_></rects>
              <tilted>0</tilted></feature>
            <threshold>3.3654399216175079e-02</threshold>
            <left_val>-7.2368431091308594e-01</left_val>
            <right_val>7.4324357509613037e-01</right_val></_></_>
        <_>
          <!-- tree 1 -->
          <_>
            <!-- root node -->
            <feature>
              <rects>
                <_>
                  0 6 24 12 -1.</_>
                <_>
                  0 12 24 6 2.</_></rects>
              <tilted>0</tilted></feature>
            <threshold>2.0145900547504425e-02</threshold>
            <left_val>-9.0244579315185547e-01</left_val>
            <right_val>5.6549322605133057e-01</right_val></_></_>
        <_>
          <!-- tree 2 -->
          <_>
            <!-- root node -->
            <feature>
              <rects>
                <_>
                  0 3 8 5 -1.</_>
                <_>
                  2 3 4 5 2.</_></rects>
              <tilted>0</tilted></feature>
            <threshold>-3.6165770143270493e-03</threshold>
            <left_val>5.8174502849578857e-01</left_val>
            <right_val>-7.4592530727386475e-01</right_val></_></_>
        <_>
          <!-- tree 3 -->
          <_>
            <!-- root node -->
            <feature>
              <rects>
                <_>
                  6 2 12 12 -1.</_>
                <_>
                  9 2 6 12 2.</_></rects>
              <tilted>0</tilted></feature>
            <threshold>1.9637730438262224e-03</threshold>
            <left_val>-8.8761478662490845e-01</left_val>
            <right_val>4.7620210051536560e-01</right_val></_></_></trees>
      <stage_threshold>-4.2892539501190186e-01</stage_threshold>
      <parent>-1</parent>
      <next>-1</next></_>
    <_>
      <!-- stage 1 -->
      <trees>
        <_>
          <!-- tree 0 -->
          <_>
            <!-- root node -->
            <feature>
              <rects>
                <_>
                  4 0 6 2 -1.</_>
                <_>
                  6 2 2 2 3.</_></rects>
              <tilted>1</tilted></feature>
            <threshold>-7.6176938600838184e-03</threshold>
            <left_val>6.2091511487960815e-01</left_val>
            <right_val>-6.4625847339630127e-01</right_val></_></_>
        <_>
          <!-- tree 1 -->
          <_>
            <!-- root node -->
            <feature>
              <rects>
                <_>
                  0 0 24 1 -1.</_>
                <_>
                  6 0 12 1 2.</_></rects>
              <tilted>0</tilted></feature>
            <threshold>-1.8893000378739089e-04</threshold>
            <left_val>4.4181180000305176e-01</left_val>
            <right_val>-6.4077168703079224e-01</right_val></_></_>
        <_>
          <!-- tree 2 -->
          <_>
            <!-- root node -->
            <feature>
              <rects>
                <_>
                  5 14 14 4 -1.</_>
                <_>
                  5 16 14 2 2.</_></rects>
              <tilted>0</tilted></feature>
            <threshold>-9.5458831638097763e-03</threshold>
            <left_val>6.1865448951721191e-01</left_val>
            <right_val>-4.8195460438728333e-01</right_val></_></_></trees>
      <stage_threshold>-6.8640130758285522e-01</stage_threshold>
      <parent>0</parent>
      <next>-1</next></_>
    <_>
      <!-- stage 2 -->
      <trees>
        <_>
          <!-- tree 0 -->
          <_>
            <!-- root node -->
            <feature>
              <rects>
                <_>
                  10 14 3 10 -1.</_>
                <_>
                  10 19 3 5 2.</_></rects>
              <tilted>0</tilted></feature>
            <threshold>-7.1987172123044729e-04</threshold>
            <left_val>7.4834442138671875e-01</left_val>
            <right_val>-7.5838929414749146e-01</right_val></_></_>
        <_>
          <!-- tree 1 -->
          <_>
            <!-- root node -->
            <feature>
              <rects>
                <_>
                  13 21 4 2 -1.</_>
                <_>
                  13 22 4 1 2.</_></rects>
              <tilted>0</tilted></feature>
            <threshold>-2.4512290838174522e-04</threshold>
            <left_val>8.4483480453491211e-01</left_val>
            <right_val>-4.3935421109199524e-01</right_val></_></_>
        <_>
          <!-- tree 2 -->
          <_>
            <!-- root node -->
            <feature>
              <rects>
                <_>
                  6 17 1 2 -1.</_>
                <_>
                  6 18 1 1 2.</_></rects>
              <tilted>0</tilted></feature>
            <threshold>-3.1243060220731422e-05</threshold>
            <left_val>8.6993509531021118e-01</left_val>
            <right_val>-5.3023707866668701e-01</right_val></_></_></trees>
      <stage_threshold>-4.4379159808158875e-01</stage_threshold>
      <parent>1</parent>
      <next>-1</next></_>
    <_>
      <!-- stage 3 -->
      <trees>
        <_>
          <!-- tree 0 -->
          <_>
            <!-- root node -->
            <feature>
              <rects>
                <_>
                  0 0 4 11 -1.</_>
                <_>
                  2 0 2 11 2.</_></rects>
              <tilted>0</tilted></feature>
            <threshold>-6.4041949808597565e-03</threshold>
            <left_val>5.9223312139511108e-01</left_val>
            <right_val>-6.2886601686477661e-01</right_val></_></_>
        <_>
          <!-- tree 1 -->
          <_>
            <!-- root node -->
            <feature>
              <rects>
                <_>
                  19 12 4 2 -1.</_>
                <_>
                  19 13 4 1 2.</_></rects>
              <tilted>0</tilted></feature>
            <threshold>2.0088540622964501e-04</threshold>
            <left_val>-2.5113418698310852e-01</left_val>
            <right_val>3.1486320495605469e-01</right_val></_></_>
        <_>
          <!-- tree 2 -->
          <_>
            <!-- root node -->
            <feature>
              <rects>
                <_>
                  1 12 4 2 -1.</_>
                <_>
                  1 13 4 1 2.</_></rects>
              <tilted>0</tilted></feature>
            <threshold>1.7765240045264363e-04</threshold>
            <left_val>-5.4880118370056152e-01</left_val>
            <right_val>5.5606317520141602e-01</right_val></_></_>
        <_>
          <!-- tree 3 -->
          <_>
            <!-- root node -->
            <feature>
              <rects>
                <_>
                  3 0 18 2 -1.</_>
                <_>
                  3 1 18 1 2.</_></rects>
              <tilted>0</tilted></feature>
            <threshold>-5.6830779649317265e-03</threshold>
            <left_val>6.9312918186187744e-01</left_val>
            <right_val>-4.5477300882339478e-01</right_val></_></_>
        <_>
          <!-- tree 4 -->
          <_>
            <!-- root node -->
            <feature>
              <rects>
                <_>
                  3 10 9 1 -1.</_>
                <_>
                  6 10 3 1 3.</_></rects>
              <tilted>0</tilted></feature>
            <threshold>5.4068898316472769e-04</threshold>
            <left_val>-4.6666559576988220e-01</left_val>
            <right_val>6.2439399957656860e-01</right_val></_></_></trees>
      <stage_threshold>-1.2453759908676147e+00</stage_threshold>
      <parent>2</parent>
      <next>-1</next></_>
    <_>
      <!-- stage 4 -->
      <trees>
        <_>
          <!-- tree 0 -->
          <_>
            <!-- root node -->
            <feature>
              <rects>
                <_>
                  0 0 16 8 -1.</_>
                <_>
                  0 0 8 4 2.</_>
                <_>
                  8 4 8 4 2.</_></rects>
              <tilted>0</tilted></feature>
            <threshold>3.5809028893709183e-02</threshold>
            <left_val>-5.5234658718109131e-01</left_val>
            <right_val>4.7368448972702026e-01</right_val></_></_>
        <_>
          <!-- tree 1 -->
          <_>
            <!-- root node -->
            <feature>
              <rects>
                <_>
                  18 8 6 4 -1.</_>
                <_>
                  20 8 2 4 3.</_></rects>
              <tilted>0</tilted></feature>
            <threshold>-2.9066710267215967e-03</threshold>
            <left_val>4.3382290005683899e-01</left_val>
            <right_val>-3.4119859337806702e-01</right_val></_></_>
        <_>
          <!-- tree 2 -->
          <_>
            <!-- root node -->
            <feature>
              <rects>
                <_>
                  0 0 2 13 -1.</_>
                <_>
                  1 0 1 13 2.</_></rects>
              <tilted>0</tilted></feature>
            <threshold>-3.7164159584790468e-03</threshold>
            <left_val>5.1314049959182739e-01</left_val>
            <right_val>-4.3088701367378235e-01</right_val></_></_>
        <_>
          <!-- tree 3 -->
          <_>
            <!-- root node -->
            <feature>
              <rects>
                <_>
                  3 1 21 18 -1.</_>
                <_>
                  3 10 21 9 2.</_></rects>
              <tilted>0</tilted></feature>
            <threshold>1.4847730286419392e-02</threshold>
            <left_val>-8.9209181070327759e-01</left_val>
            <right_val>2.1618290245532990e-01</right_val></_></_>
        <_>
          <!-- tree 4 -->
          <_>
            <!-- root node -->
            <feature>
              <rects>
                <_>
                  0 23 10 1 -1.</_>
                <_>
                  5 23 5 1 2.</_></rects>
              <tilted>0</tilted></feature>
            <threshold>-4.2253867723047733e-03</threshold>
            <left_val>5.7854920625686646e-01</left_val>
            <right_val>-4.0041241049766541e-01</right_val></_></_>
        <_>
          <!-- tree 5 -->
          <_>
            <!-- root node -->
            <feature>
              <rects>
                <_>
                  17 4 4 20 -1.</_>
                <_>
                  17 4 2 20 2.</_></rects>
              <tilted>0</tilted></feature>
            <threshold>3.3609389793127775e-03</threshold>
            <left_val>-5.4965257644653320e-01</left_val>
            <right_val>2.9325151443481445e-01</right_val></_></_>
        <_>
          <!-- tree 6 -->
          <_>
            <!-- root node -->
            <feature>
              <rects>
                <_>
                  9 21 4 2 -1.</_>
                <_>
                  10 21 2 2 2.</_></rects>
              <tilted>0</tilted></feature>
            <threshold>6.9135887315496802e-05</threshold>
            <left_val>-4.3954551219940186e-01</left_val>
            <right_val>4.5766788721084595e-01</right_val></_></_></trees>
      <stage_threshold>-1.0441809892654419e+00</stage_threshold>
      <parent>3</parent>
      <next>-1</next></_>
    <_>
      <!-- stage 5 -->
      <trees>
        <_>
          <!-- tree 0 -->
          <_>
            <!-- root node -->
            <feature>
              <rects>
                <_>
                  2 4 6 2 -1.</_>
                <_>
                  4 6 2 2 3.</_></rects>
              <tilted>1</tilted></feature>
            <threshold>-1.8152050673961639e-02</threshold>
            <left_val>6.4912289381027222e-01</left_val>
            <right_val>-3.9784941077232361e-01</right_val></_></_>
        <_>
          <!-- tree 1 -->
          <_>
            <!-- root node -->
            <feature>
              <rects>
                <_>
                  8 9 9 4 -1.</_>
                <_>
                  8 10 9 2 2.</_></rects>
              <tilted>0</tilted></feature>
            <threshold>-2.8785599861294031e-03</threshold>
            <left_val>5.3994619846343994e-01</left_val>
            <right_val>-3.5472890734672546e-01</right_val></_></_>
        <_>
          <!-- tree 2 -->
          <_>
            <!-- root node -->
            <feature>
              <rects>
                <_>
                  1 0 9 6 -1.</_>
                <_>
                  1 2 9 2 3.</_></rects>
              <tilted>0</tilted></feature>
            <threshold>-6.7770620808005333e-03</threshold>
            <left_val>4.4781461358070374e-01</left_val>
            <right_val>-4.3392848968505859e-01</right_val></_></_>
        <_>
          <!-- tree 3 -->
          <_>
            <!-- root node -->
            <feature>
              <rects>
                <_>
                  22 17 2 5 -1.</_>
                <_>
                  22 17 1 5 2.</_></rects>
              <tilted>0</tilted></feature>
            <threshold>-1.3316590338945389e-03</threshold>
            <left_val>4.7297221422195435e-01</left_val>
            <right_val>-2.4421769380569458e-01</right_val></_></_>
        <_>
          <!-- tree 4 -->
          <_>
            <!-- root node -->
            <feature>
              <rects>
                <_>
                  0 17 2 5 -1.</_>
                <_>
                  1 17 1 5 2.</_></rects>
              <tilted>0</tilted></feature>
            <threshold>-1.2041040463373065e-03</threshold>
            <left_val>5.7581841945648193e-01</left_val>
            <right_val>-3.6282989382743835e-01</right_val></_></_>
        <_>
          <!-- tree 5 -->
          <_>
            <!-- root node -->
            <feature>
              <rects>
                <_>
                  14 10 5 3 -1.</_>
                <_>
                  14 11 5 1 3.</_></rects>
              <tilted>0</tilted></feature>
            <threshold>3.2830480486154556e-03</threshold>
            <left_val>-2.0240670442581177e-01</left_val>
            <right_val>6.1119008064270020e-01</right_val></_></_>
        <_>
          <!-- tree 6 -->
          <_>
            <!-- root node -->
            <feature>
              <rects>
                <_>
                  4 2 8 11 -1.</_>
                <_>
                  6 2 4 11 2.</_></rects>
              <tilted>0</tilted></feature>
            <threshold>-1.4921549707651138e-02</threshold>
            <left_val>-9.6558767557144165e-01</left_val>
            <right_val>2.7226990461349487e-01</right_val></_></_></trees>
      <stage_threshold>-8.4194797277450562e-01</stage_threshold>
      <parent>4</parent>
      <next>-1</next></_>
    <_>
      <!-- stage 6 -->
      <trees>
        <_>
          <!-- tree 0 -->
          <_>
            <!-- root node -->
            <feature>
              <rects>
                <_>
                  0 1 24 1 -1.</_>
                <_>
                  8 1 8 1 3.</_></rects>
              <tilted>0</tilted></feature>
            <threshold>-2.4662250652909279e-02</threshold>
            <left_val>5.8951967954635620e-01</left_val>
            <right_val>-3.6388128995895386e-01</right_val></_></_>
        <_>
          <!-- tree 1 -->
          <_>
            <!-- root node -->
            <feature>
              <rects>
                <_>
                  17 9 1 14 -1.</_>
                <_>
                  17 9 1 7 2.</_></rects>
              <tilted>1</tilted></feature>
            <threshold>-2.4026330560445786e-02</threshold>
            <left_val>-4.3139341473579407e-01</left_val>
            <right_val>6.3393041491508484e-02</right_val></_></_>
        <_>
          <!-- tree 2 -->
          <_>
            <!-- root node -->
            <feature>
              <rects>
                <_>
                  10 13 6 5 -1.</_>
                <_>
                  10 13 3 5 2.</_></rects>
              <tilted>1</tilted></feature>
            <threshold>-2.7951630763709545e-03</threshold>
            <left_val>-6.8518567085266113e-01</left_val>
            <right_val>2.8114411234855652e-01</right_val></_></_>
        <_>
          <!-- tree 3 -->
          <_>
            <!-- root node -->
            <feature>
              <rects>
                <_>
                  20 10 4 1 -1.</_>
                <_>
                  21 10 2 1 2.</_></rects>
              <tilted>0</tilted></feature>
            <threshold>-7.6364289270713925e-04</threshold>
            <left_val>5.1969397068023682e-01</left_val>
            <right_val>-3.4942609071731567e-01</right_val></_></_>
        <_>
          <!-- tree 4 -->
          <_>
            <!-- root node -->
            <feature>
              <rects>
                <_>
                  2 5 6 7 -1.</_>
                <_>
                  4 5 2 7 3.</_></rects>
              <tilted>0</tilted></feature>
            <threshold>5.3823990747332573e-03</threshold>
            <left_val>-2.2429539263248444e-01</left_val>
            <right_val>6.8556350469589233e-01</right_val></_></_>
        <_>
          <!-- tree 5 -->
          <_>
            <!-- root node -->
            <feature>
              <rects>
                <_>
                  12 12 9 1 -1.</_>
                <_>
                  15 12 3 1 3.</_></rects>
              <tilted>0</tilted></feature>
            <threshold>2.0800819620490074e-03</threshold>
            <left_val>-1.4177109301090240e-01</left_val>
            <right_val>3.2387220859527588e-01</right_val></_></_>
        <_>
          <!-- tree 6 -->
          <_>
            <!-- root node -->
            <feature>
              <rects>
                <_>
                  2 19 1 4 -1.</_>
                <_>
                  2 20 1 2 2.</_></rects>
              <tilted>0</tilted></feature>
            <threshold>-2.0656209380831569e-04</threshold>
            <left_val>4.8093628883361816e-01</left_val>
            <right_val>-4.0431550145149231e-01</right_val></_></_>
        <_>
          <!-- tree 7 -->
          <_>
            <!-- root node -->
            <feature>
              <rects>
                <_>
                  12 12 9 1 -1.</_>
                <_>
                  15 12 3 1 3.</_></rects>
              <tilted>0</tilted></feature>
            <threshold>-1.8253810412716120e-04</threshold>
            <left_val>1.7589829862117767e-01</left_val>
            <right_val>-9.6925742924213409e-02</right_val></_></_>
        <_>
          <!-- tree 8 -->
          <_>
            <!-- root node -->
            <feature>
              <rects>
                <_>
                  3 12 9 1 -1.</_>
                <_>
                  6 12 3 1 3.</_></rects>
              <tilted>0</tilted></feature>
            <threshold>3.1004070769995451e-03</threshold>
            <left_val>-3.5192948579788208e-01</left_val>
            <right_val>5.7823687791824341e-01</right_val></_></_>
        <_>
          <!-- tree 9 -->
          <_>
            <!-- root node -->
            <feature>
              <rects>
                <_>
                  9 18 7 3 -1.</_>
                <_>
                  9 19 7 1 3.</_></rects>
              <tilted>0</tilted></feature>
            <threshold>1.4476210344582796e-03</threshold>
            <left_val>-3.1256881356239319e-01</left_val>
            <right_val>4.8213189840316772e-01</right_val></_></_></trees>
      <stage_threshold>-8.3305150270462036e-01</stage_threshold>
      <parent>5</parent>
      <next>-1</next></_>
    <_>
      <!-- stage 7 -->
      <trees>
        <_>
          <!-- tree 0 -->
          <_>
            <!-- root node -->
            <feature>
              <rects>
                <_>
                  5 0 6 5 -1.</_>
                <_>
                  7 2 2 5 3.</_></rects>
              <tilted>1</tilted></feature>
            <threshold>-7.3553256690502167e-02</threshold>
            <left_val>8.0281698703765869e-01</left_val>
            <right_val>-2.4890840053558350e-01</right_val></_></_>
        <_>
          <!-- tree 1 -->
          <_>
            <!-- root node -->
            <feature>
              <rects>
                <_>
                  3 1 21 18 -1.</_>
                <_>
                  3 10 21 9 2.</_></rects>
              <tilted>0</tilted></feature>
            <threshold>1.0271909646689892e-02</threshold>
            <left_val>-8.2394719123840332e-01</left_val>
            <right_val>1.5142430365085602e-01</right_val></_></_>
        <_>
          <!-- tree 2 -->
          <_>
            <!-- root node -->
            <feature>
              <rects>
                <_>
                  0 23 12 1 -1.</_>
                <_>
                  6 23 6 1 2.</_></rects>
              <tilted>0</tilted></feature>
            <threshold>-1.1588229797780514e-02</threshold>
            <left_val>6.7043638229370117e-01</left_val>
            <right_val>-2.6247018575668335e-01</right_val></_></_>
        <_>
          <!-- tree 3 -->
          <_>
            <!-- root node -->
            <feature>
              <rects>
                <_>
                  2 6 21 3 -1.</_>
                <_>
                  9 6 7 3 3.</_></rects>
              <tilted>0</tilted></feature>
            <threshold>4.6034950762987137e-02</threshold>
            <left_val>-4.1792619228363037e-01</left_val>
            <right_val>4.3109229207038879e-01</right_val></_></_>
        <_>
          <!-- tree 4 -->
          <_>
            <!-- root node -->
            <feature>
              <rects>
                <_>
                  7 10 4 3 -1.</_>
                <_>
                  7 11 4 1 3.</_></rects>
              <tilted>0</tilted></feature>
            <threshold>2.6805200614035130e-03</threshold>
            <left_val>-2.5331440567970276e-01</left_val>
            <right_val>6.9278109073638916e-01</right_val></_></_>
        <_>
          <!-- tree 5 -->
          <_>
            <!-- root node -->
            <feature>
              <rects>
                <_>
                  10 10 5 2 -1.</_>
                <_>
                  10 11 5 1 2.</_></rects>
              <tilted>0</tilted></feature>
            <threshold>-1.6427689697593451e-03</threshold>
            <left_val>6.7431318759918213e-01</left_val>
            <right_val>-2.1593810617923737e-01</right_val></_></_>
        <_>
          <!-- tree 6 -->
          <_>
            <!-- root node -->
            <feature>
              <rects>
                <_>
                  0 8 24 12 -1.</_>
                <_>
                  0 12 24 4 3.</_></rects>
              <tilted>0</tilted></feature>
            <threshold>8.9722037315368652e-02</threshold>
            <left_val>-3.8195869326591492e-01</left_val>
            <right_val>4.2834079265594482e-01</right_val></_></_>
        <_>
          <!-- tree 7 -->
          <_>
            <!-- root node -->
            <feature>
              <rects>
                <_>
                  0 0 24 3 -1.</_>
                <_>
                  6 0 12 3 2.</_></rects>
              <tilted>0</tilted></feature>
            <threshold>-4.6514179557561874e-02</threshold>
            <left_val>5.1564067602157593e-01</left_val>
            <right_val>-3.7530729174613953e-01</right_val></_></_>
        <_>
          <!-- tree 8 -->
          <_>
            <!-- root node -->
            <feature>
              <rects>
                <_>
                  10 20 4 4 -1.</_>
                <_>
                  10 21 4 2 2.</_></rects>
              <tilted>0</tilted></feature>
            <threshold>2.1568450611084700e-03</threshold>
            <left_val>-3.0649080872535706e-01</left_val>
            <right_val>6.3941991329193115e-01</right_val></_></_></trees>
      <stage_threshold>-6.5157192945480347e-01</stage_threshold>
      <parent>6</parent>
      <next>-1</next></_>
    <_>
      <!-- stage 8 -->
      <trees>
        <_>
          <!-- tree 0 -->
          <_>
            <!-- root node -->
            <feature>
              <rects>
                <_>
                  1 3 6 6 -1.</_>
                <_>
                  1 3 3 3 2.</_>
                <_>
                  4 6 3 3 2.</_></rects>
              <tilted>0</tilted></feature>
            <threshold>1.6265880316495895e-02</threshold>
            <left_val>-2.9064041376113892e-01</left_val>
            <right_val>6.0824811458587646e-01</right_val></_></_>
        <_>
          <!-- tree 1 -->
          <_>
            <!-- root node -->
            <feature>
              <rects>
                <_>
                  18 4 5 15 -1.</_>
                <_>
                  13 9 5 5 3.</_></rects>
              <tilted>1</tilted></feature>
            <threshold>-3.5036290064454079e-03</threshold>
            <left_val>-4.2853081226348877e-01</left_val>
            <right_val>1.1155399680137634e-01</right_val></_></_>
        <_>
          <!-- tree 2 -->
          <_>
            <!-- root node -->
            <feature>
              <rects>
                <_>
                  1 6 14 12 -1.</_>
                <_>
                  1 6 7 6 2.</_>
                <_>
                  8 12 7 6 2.</_></rects>
              <tilted>0</tilted></feature>
            <threshold>-1.2882960028946400e-02</threshold>
            <left_val>3.3589550852775574e-01</left_val>
            <right_val>-4.7802880406379700e-01</right_val></_></_>
        <_>
          <!-- tree 3 -->
          <_>
            <!-- root node -->
            <feature>
              <rects>
                <_>
                  17 12 3 8 -1.</_>
                <_>
                  17 12 3 4 2.</_></rects>
              <tilted>1</tilted></feature>
            <threshold>4.2279209941625595e-02</threshold>
            <left_val>4.1775278747081757e-02</left_val>
            <right_val>-8.6997961997985840e-01</right_val></_></_>
        <_>
          <!-- tree 4 -->
          <_>
            <!-- root node -->
            <feature>
              <rects>
                <_>
                  3 19 4 4 -1.</_>
                <_>
                  3 19 2 2 2.</_>
                <_>
                  5 21 2 2 2.</_></rects>
              <tilted>0</tilted></feature>
            <threshold>-1.6909920377656817e-03</threshold>
            <left_val>4.9771109223365784e-01</left_val>
            <right_val>-2.8962340950965881e-01</right_val></_></_>
        <_>
          <!-- tree 5 -->
          <_>
            <!-- root node -->
            <feature>
              <rects>
                <_>
                  3 1 18 16 -1.</_>
                <_>
                  12 1 9 8 2.</_>
                <_>
                  3 9 9 8 2.</_></rects>
              <tilted>0</tilted></feature>
            <threshold>6.2525697052478790e-02</threshold>
            <left_val>2.2796380519866943e-01</left_val>
            <right_val>-6.8512761592864990e-01</right_val></_></_>
        <_>
          <!-- tree 6 -->
          <_>
            <!-- root node -->
            <feature>
              <rects>
                <_>
                  0 0 24 10 -1.</_>
                <_>
                  0 0 12 5 2.</_>
                <_>
                  12 5 12 5 2.</_></rects>
              <tilted>0</tilted></feature>
            <threshold>1.1605659872293472e-01</threshold>
            <left_val>1.3789020478725433e-01</left_val>
            <right_val>-9.5426642894744873e-01</right_val></_></_>
        <_>
          <!-- tree 7 -->
          <_>
            <!-- root node -->
            <feature>
              <rects>
                <_>
                  7 16 10 6 -1.</_>
                <_>
                  7 18 10 2 3.</_></rects>
              <tilted>0</tilted></feature>
            <threshold>9.6438499167561531e-03</threshold>
            <left_val>-3.0459040403366089e-01</left_val>
            <right_val>5.8115839958190918e-01</right_val></_></_>
        <_>
          <!-- tree 8 -->
          <_>
            <!-- root node -->
            <feature>
              <rects>
                <_>
                  0 1 4 20 -1.</_>
                <_>
                  2 1 2 20 2.</_></rects>
              <tilted>0</tilted></feature>
            <threshold>-2.9873270541429520e-02</threshold>
            <left_val>4.9270179867744446e-01</left_val>
            <right_val>-3.2900118827819824e-01</right_val></_></_></trees>
      <stage_threshold>-4.8453348875045776e-01</stage_threshold>
      <parent>7</parent>
      <next>-1</next></_>
    <_>
      <!-- stage 9 -->
      <trees>
        <_>
          <!-- tree 0 -->
          <_>
            <!-- root node -->
            <feature>
              <rects>
                <_>
                  2 5 4 11 -1.</_>
                <_>
                  4 5 2 11 2.</_></rects>
              <tilted>0</tilted></feature>
            <threshold>2.9251189902424812e-02</threshold>
            <left_val>-1.8032790720462799e-01</left_val>
            <right_val>7.8571492433547974e-01</right_val></_></_>
        <_>
          <!-- tree 1 -->
          <_>
            <!-- root node -->
            <feature>
              <rects>
                <_>
                  5 0 16 8 -1.</_>
                <_>
                  5 2 16 4 2.</_></rects>
              <tilted>0</tilted></feature>
            <threshold>-5.8159779757261276e-02</threshold>
            <left_val>5.9969842433929443e-01</left_val>
            <right_val>-2.2696970403194427e-01</right_val></_></_>
        <_>
          <!-- tree 2 -->
          <_>
            <!-- root node -->
            <feature>
              <rects>
                <_>
                  7 0 9 12 -1.</_>
                <_>
                  7 4 9 4 3.</_></rects>
              <tilted>0</tilted></feature>
            <threshold>7.0086367428302765e-02</threshold>
            <left_val>-2.2714999318122864e-01</left_val>
            <right_val>5.9723788499832153e-01</right_val></_></_>
        <_>
          <!-- tree 3 -->
          <_>
            <!-- root node -->
            <feature>
              <rects>
                <_>
                  12 7 4 8 -1.</_>
                <_>
                  12 7 4 4 2.</_></rects>
              <tilted>1</tilted></feature>
            <threshold>3.0143689364194870e-02</threshold>
            <left_val>1.5849040448665619e-01</left_val>
            <right_val>-7.2037929296493530e-01</right_val></_></_>
        <_>
          <!-- tree 4 -->
          <_>
            <!-- root node -->
            <feature>
              <rects>
                <_>
                  0 9 6 11 -1.</_>
                <_>
                  3 9 3 11 2.</_></rects>
              <tilted>0</tilted></feature>
            <threshold>-8.2797277718782425e-03</threshold>
            <left_val>3.9131298661231995e-01</left_val>
            <right_val>-4.3590080738067627e-01</right_val></_></_>
        <_>
          <!-- tree 5 -->
          <_>
            <!-- root node -->
            <feature>
              <rects>
                <_>
                  22 2 1 14 -1.</_>
                <_>
                  22 2 1 7 2.</_></rects>
              <tilted>1</tilted></feature>
            <threshold>-1.1547789908945560e-02</threshold>
            <left_val>1.6266299784183502e-01</left_val>
            <right_val>-4.2616000771522522e-01</right_val></_></_>
        <_>
          <!-- tree 6 -->
          <_>
            <!-- root node -->
            <feature>
              <rects>
                <_>
                  0 15 22 1 -1.</_>
                <_>
                  11 15 11 1 2.</_></rects>
              <tilted>0</tilted></feature>
            <threshold>-1.3629189692437649e-02</threshold>
            <left_val>-5.9378278255462646e-01</left_val>
            <right_val>2.5102278590202332e-01</right_val></_></_>
        <_>
          <!-- tree 7 -->
          <_>
            <!-- root node -->
            <feature>
              <rects>
                <_>
                  9 2 6 7 -1.</_>
                <_>
                  11 2 2 7 3.</_></rects>
              <tilted>0</tilted></feature>
            <threshold>-7.5911697931587696e-03</threshold>
            <left_val>-9.7665601968765259e-01</left_val>
            <right_val>1.4161559939384460e-01</right_val></_></_></trees>
      <stage_threshold>-3.7469419836997986e-01</stage_threshold>
      <parent>8</parent>
      <next>-1</next></_>
    <_>
      <!-- stage 10 -->
      <trees>
        <_>
          <!-- tree 0 -->
          <_>
            <!-- root node -->
            <feature>
              <rects>
                <_>
                  2 5 20 2 -1.</_>
                <_>
                  7 5 10 2 2.</_></rects>
              <tilted>0</tilted></feature>
            <threshold>5.0036478787660599e-02</threshold>
            <left_val>-1.9650650024414062e-01</left_val>
            <right_val>6.3380312919616699e-01</right_val></_></_>
        <_>
          <!-- tree 1 -->
          <_>
            <!-- root node -->
            <feature>
              <rects>
                <_>
                  17 19 3 2 -1.</_>
                <_>
                  18 20 1 2 3.</_></rects>
              <tilted>1</tilted></feature>
            <threshold>-3.1316380482167006e-03</threshold>
            <left_val>4.6658518910408020e-01</left_val>
            <right_val>-1.1582289636135101e-01</right_val></_></_>
        <_>
          <!-- tree 2 -->
          <_>
            <!-- root node -->
            <feature>
              <rects>
                <_>
                  2 14 4 6 -1.</_>
                <_>
                  2 14 2 3 2.</_>
                <_>
                  4 17 2 3 2.</_></rects>
              <tilted>0</tilted></feature>
            <threshold>-9.2861820012331009e-03</threshold>
            <left_val>6.9656747579574585e-01</left_val>
            <right_val>-2.3168210685253143e-01</right_val></_></_>
        <_>
          <!-- tree 3 -->
          <_>
            <!-- root node -->
            <feature>
              <rects>
                <_>
                  0 0 24 3 -1.</_>
                <_>
                  8 1 8 1 9.</_></rects>
              <tilted>0</tilted></feature>
            <threshold>-6.1305511742830276e-02</threshold>
            <left_val>4.3117541074752808e-01</left_val>
            <right_val>-3.3972328901290894e-01</right_val></_></_>
        <_>
          <!-- tree 4 -->
          <_>
            <!-- root node -->
            <feature>
              <rects>
                <_>
                  7 8 10 4 -1.</_>
                <_>
                  12 8 5 4 2.</_></rects>
              <tilted>0</tilted></feature>
            <threshold>-1.6362519934773445e-02</threshold>
            <left_val>-6.4212697744369507e-01</left_val>
            <right_val>2.2946980595588684e-01</right_val></_></_>
        <_>
          <!-- tree 5 -->
          <_>
            <!-- root node -->
            <feature>
              <rects>
                <_>
                  15 21 3 2 -1.</_>
                <_>
                  16 21 1 2 3.</_></rects>
              <tilted>0</tilted></feature>
            <threshold>7.1397393185179681e-05</threshold>
            <left_val>-1.4927950501441956e-01</left_val>
            <right_val>2.0623129606246948e-01</right_val></_></_>
        <_>
          <!-- tree 6 -->
          <_>
            <!-- root node -->
            <feature>
              <rects>
                <_>
                  0 8 3 3 -1.</_>
                <_>
                  1 8 1 3 3.</_></rects>
              <tilted>0</tilted></feature>
            <threshold>-3.6746689584106207e-03</threshold>
            <left_val>6.8194431066513062e-01</left_val>
            <right_val>-2.0744609832763672e-01</right_val></_></_>
        <_>
          <!-- tree 7 -->
          <_>
            <!-- root node -->
            <feature>
              <rects>
                <_>
                  10 12 4 5 -1.</_>
                <_>
                  11 12 2 5 2.</_></rects>
              <tilted>0</tilted></feature>
            <threshold>-1.1945660226047039e-03</threshold>
            <left_val>5.8492749929428101e-01</left_val>
            <right_val>-2.6682630181312561e-01</right_val></_></_>
        <_>
          <!-- tree 8 -->
          <_>
            <!-- root node -->
            <feature>
              <rects>
                <_>
                  6 7 2 1 -1.</_>
                <_>
                  7 7 1 1 2.</_></rects>
              <tilted>0</tilted></feature>
            <threshold>4.0826311305863783e-05</threshold>
            <left_val>-5.0213032960891724e-01</left_val>
            <right_val>3.0626600980758667e-01</right_val></_></_></trees>
      <stage_threshold>-9.2819362878799438e-01</stage_threshold>
      <parent>9</parent>
      <next>-1</next></_>
    <_>
      <!-- stage 11 -->
      <trees>
        <_>
          <!-- tree 0 -->
          <_>
            <!-- root node -->
            <feature>
              <rects>
                <_>
                  7 8 8 3 -1.</_>
                <_>
                  7 9 8 1 3.</_></rects>
              <tilted>0</tilted></feature>
            <threshold>3.2046709675341845e-03</threshold>
            <left_val>-2.4582320451736450e-01</left_val>
            <right_val>5.6906062364578247e-01</right_val></_></_>
        <_>
          <!-- tree 1 -->
          <_>
            <!-- root node -->
            <feature>
              <rects>
                <_>
                  20 9 4 2 -1.</_>
                <_>
                  21 9 2 2 2.</_></rects>
              <tilted>0</tilted></feature>
            <threshold>-2.6513470802456141e-03</threshold>
            <left_val>5.9121108055114746e-01</left_val>
            <right_val>-2.4139559268951416e-01</right_val></_></_>
        <_>
          <!-- tree 2 -->
          <_>
            <!-- root node -->
            <feature>
              <rects>
                <_>
                  2 22 4 2 -1.</_>
                <_>
                  2 22 2 1 2.</_>
                <_>
                  4 23 2 1 2.</_></rects>
              <tilted>0</tilted></feature>
            <threshold>1.3974149478599429e-03</threshold>
            <left_val>-2.0800490677356720e-01</left_val>
            <right_val>6.4135932922363281e-01</right_val></_></_>
        <_>
          <!-- tree 3 -->
          <_>
            <!-- root node -->
            <feature>
              <rects>
                <_>
                  0 0 24 4 -1.</_>
                <_>
                  0 2 24 2 2.</_></rects>
              <tilted>0</tilted></feature>
            <threshold>-2.4794559925794601e-02</threshold>
            <left_val>4.5227339863777161e-01</left_val>
            <right_val>-3.5984179377555847e-01</right_val></_></_>
        <_>
          <!-- tree 4 -->
          <_>
            <!-- root node -->
            <feature>
              <rects>
                <_>
                  7 15 2 4 -1.</_>
                <_>
                  7 17 2 2 2.</_></rects>
              <tilted>0</tilted></feature>
            <threshold>-8.2669378025457263e-04</threshold>
            <left_val>4.0760821104049683e-01</left_val>
            <right_val>-3.9975860714912415e-01</right_val></_></_>
        <_>
          <!-- tree 5 -->
          <_>
            <!-- root node -->
            <feature>
              <rects>
                <_>
                  19 4 1 6 -1.</_>
                <_>
                  17 6 1 2 3.</_></rects>
              <tilted>1</tilted></feature>
            <threshold>9.3316603451967239e-03</threshold>
            <left_val>-6.6202282905578613e-02</left_val>
            <right_val>4.1884648799896240e-01</right_val></_></_>
        <_>
          <!-- tree 6 -->
          <_>
            <!-- root node -->
            <feature>
              <rects>
                <_>
                  6 9 5 3 -1.</_>
                <_>
                  6 10 5 1 3.</_></rects>
              <tilted>0</tilted></feature>
            <threshold>6.9882478564977646e-03</threshold>
            <left_val>-1.7682869732379913e-01</left_val>
            <right_val>8.4679639339447021e-01</right_val></_></_>
        <_>
          <!-- tree 7 -->
          <_>
            <!-- root node -->
            <feature>
              <rects>
                <_>
                  12 10 3 3 -1.</_>
                <_>
                  12 11 3 1 3.</_></rects>
              <tilted>0</tilted></feature>
            <threshold>9.3226821627467871e-04</threshold>
            <left_val>-2.2364650666713715e-01</left_val>
            <right_val>4.8182249069213867e-01</right_val></_></_>
        <_>
          <!-- tree 8 -->
          <_>
            <!-- root node -->
            <feature>
              <rects>
                <_>
                  9 22 6 2 -1.</_>
                <_>
                  11 22 2 2 3.</_></rects>
              <tilted>0</tilted></feature>
            <threshold>1.0938099585473537e-03</threshold>
            <left_val>-3.2287728786468506e-01</left_val>
            <right_val>5.1708137989044189e-01</right_val></_></_>
        <_>
          <!-- tree 9 -->
          <_>
            <!-- root node -->
            <feature>
              <rects>
                <_>
                  10 18 4 5 -1.</_>
                <_>
                  11 18 2 5 2.</_></rects>
              <tilted>0</tilted></feature>
            <threshold>3.9139539003372192e-03</threshold>
            <left_val>1.9476260244846344e-01</left_val>
            <right_val>-8.4136897325515747e-01</right_val></_></_></trees>
      <stage_threshold>-7.5245231389999390e-01</stage_threshold>
      <parent>10</parent>
      <next>-1</next></_>
    <_>
      <!-- stage 12 -->
      <trees>
        <_>
          <!-- tree 0 -->
          <_>
            <!-- root node -->
            <feature>
              <rects>
                <_>
                  0 5 6 7 -1.</_>
                <_>
                  2 5 2 7 3.</_></rects>
              <tilted>0</tilted></feature>
            <threshold>-2.7981670573353767e-02</threshold>
            <left_val>5.5675691366195679e-01</left_val>
            <right_val>-2.4819280207157135e-01</right_val></_></_>
        <_>
          <!-- tree 1 -->
          <_>
            <!-- root node -->
            <feature>
              <rects>
                <_>
                  23 2 1 18 -1.</_>
                <_>
                  23 2 1 9 2.</_></rects>
              <tilted>1</tilted></feature>
            <threshold>-1.7547849565744400e-02</threshold>
            <left_val>1.3792340457439423e-01</left_val>
            <right_val>-2.4751999974250793e-01</right_val></_></_>
        <_>
          <!-- tree 2 -->
          <_>
            <!-- root node -->
            <feature>
              <rects>
                <_>
                  1 2 18 1 -1.</_>
                <_>
                  1 2 9 1 2.</_></rects>
              <tilted>1</tilted></feature>
            <threshold>2.3737529292702675e-02</threshold>
            <left_val>1.2461090087890625e-01</left_val>
            <right_val>-9.9999439716339111e-01</right_val></_></_>
        <_>
          <!-- tree 3 -->
          <_>
            <!-- root node -->
            <feature>
              <rects>
                <_>
                  7 1 16 6 -1.</_>
                <_>
                  15 1 8 3 2.</_>
                <_>
                  7 4 8 3 2.</_></rects>
              <tilted>0</tilted></feature>
            <threshold>3.0024269595742226e-02</threshold>
            <left_val>-2.7839151024818420e-01</left_val>
            <right_val>3.2385578751564026e-01</right_val></_></_>
        <_>
          <!-- tree 4 -->
          <_>
            <!-- root node -->
            <feature>
              <rects>
                <_>
                  12 13 1 10 -1.</_>
                <_>
                  12 13 1 5 2.</_></rects>
              <tilted>1</tilted></feature>
            <threshold>-6.0290531255304813e-03</threshold>
            <left_val>5.7791352272033691e-01</left_val>
            <right_val>-2.0472639799118042e-01</right_val></_></_>
        <_>
          <!-- tree 5 -->
          <_>
            <!-- root node -->
            <feature>
              <rects>
                <_>
                  16 2 7 4 -1.</_>
                <_>
                  15 3 7 2 2.</_></rects>
              <tilted>1</tilted></feature>
            <threshold>7.4757370166480541e-03</threshold>
            <left_val>-2.2673329710960388e-01</left_val>
            <right_val>3.1807971000671387e-01</right_val></_></_>
        <_>
          <!-- tree 6 -->
          <_>
            <!-- root node -->
            <feature>
              <rects>
                <_>
                  1 15 5 9 -1.</_>
                <_>
                  1 18 5 3 3.</_></rects>
              <tilted>0</tilted></feature>
            <threshold>-1.6391020268201828e-02</threshold>
            <left_val>5.8537507057189941e-01</left_val>
            <right_val>-2.2740709781646729e-01</right_val></_></_>
        <_>
          <!-- tree 7 -->
          <_>
            <!-- root node -->
            <feature>
              <rects>
                <_>
                  18 12 6 1 -1.</_>
                <_>
                  18 12 3 1 2.</_></rects>
              <tilted>1</tilted></feature>
            <threshold>-5.7847350835800171e-03</threshold>
            <left_val>3.8351279497146606e-01</left_val>
            <right_val>-1.1357449740171432e-01</right_val></_></_>
        <_>
          <!-- tree 8 -->
          <_>
            <!-- root node -->
            <feature>
              <rects>
                <_>
                  6 12 1 6 -1.</_>
                <_>
                  6 12 1 3 2.</_></rects>
              <tilted>1</tilted></feature>
            <threshold>-1.1275489814579487e-02</threshold>
            <left_val>5.6933528184890747e-01</left_val>
            <right_val>-2.3541370034217834e-01</right_val></_></_>
        <_>
          <!-- tree 9 -->
          <_>
            <!-- root node -->
            <feature>
              <rects>
                <_>
                  16 10 1 12 -1.</_>
                <_>
                  13 13 1 6 2.</_></rects>
              <tilted>1</tilted></feature>
            <threshold>-2.1848750766366720e-03</threshold>
            <left_val>-3.3851361274719238e-01</left_val>
            <right_val>1.3345320522785187e-01</right_val></_></_>
        <_>
          <!-- tree 10 -->
          <_>
            <!-- root node -->
            <feature>
              <rects>
                <_>
                  7 14 3 8 -1.</_>
                <_>
                  8 14 1 8 3.</_></rects>
              <tilted>0</tilted></feature>
            <threshold>5.8059487491846085e-04</threshold>
            <left_val>-3.6768919229507446e-01</left_val>
            <right_val>3.8239818811416626e-01</right_val></_></_></trees>
      <stage_threshold>-7.2350120544433594e-01</stage_threshold>
      <parent>11</parent>
      <next>-1</next></_>
    <_>
      <!-- stage 13 -->
      <trees>
        <_>
          <!-- tree 0 -->
          <_>
            <!-- root node -->
            <feature>
              <rects>
                <_>
                  6 1 3 6 -1.</_>
                <_>
                  7 2 1 6 3.</_></rects>
              <tilted>1</tilted></feature>
            <threshold>-1.4379279688000679e-02</threshold>
            <left_val>6.4044952392578125e-01</left_val>
            <right_val>-2.7014189958572388e-01</right_val></_></_>
        <_>
          <!-- tree 1 -->
          <_>
            <!-- root node -->
            <feature>
              <rects>
                <_>
                  7 0 12 12 -1.</_>
                <_>
                  7 3 12 6 2.</_></rects>
              <tilted>0</tilted></feature>
            <threshold>-7.8432716429233551e-02</threshold>
            <left_val>7.8943192958831787e-01</left_val>
            <right_val>-1.0665280371904373e-01</right_val></_></_>
        <_>
          <!-- tree 2 -->
          <_>
            <!-- root node -->
            <feature>
              <rects>
                <_>
                  9 5 4 4 -1.</_>
                <_>
                  9 6 4 2 2.</_></rects>
              <tilted>0</tilted></feature>
            <threshold>2.8995180036872625e-03</threshold>
            <left_val>-2.8407409787178040e-01</left_val>
            <right_val>5.4061198234558105e-01</right_val></_></_>
        <_>
          <!-- tree 3 -->
          <_>
            <!-- root node -->
            <feature>
              <rects>
                <_>
                  11 5 12 7 -1.</_>
                <_>
                  14 5 6 7 2.</_></rects>
              <tilted>0</tilted></feature>
            <threshold>1.6043880023062229e-03</threshold>
            <left_val>-2.9398000240325928e-01</left_val>
            <right_val>3.0290150642395020e-01</right_val></_></_>
        <_>
          <!-- tree 4 -->
          <_>
            <!-- root node -->
            <feature>
              <rects>
                <_>
                  0 2 4 12 -1.</_>
                <_>
                  0 5 4 6 2.</_></rects>
              <tilted>0</tilted></feature>
            <threshold>-1.4412150485441089e-03</threshold>
            <left_val>2.5189951062202454e-01</left_val>
            <right_val>-5.2859818935394287e-01</right_val></_></_>
        <_>
          <!-- tree 5 -->
          <_>
            <!-- root node -->
            <feature>
              <rects>
                <_>
                  16 21 2 2 -1.</_>
                <_>
                  17 21 1 1 2.</_>
                <_>
                  16 22 1 1 2.</_></rects>
              <tilted>0</tilted></feature>
            <threshold>-3.9481681596953422e-05</threshold>
            <left_val>1.8069319427013397e-01</left_val>
            <right_val>-1.2211859971284866e-01</right_val></_></_>
        <_>
          <!-- tree 6 -->
          <_>
            <!-- root node -->
            <feature>
              <rects>
                <_>
                  3 18 6 3 -1.</_>
                <_>
                  6 18 3 3 2.</_></rects>
              <tilted>0</tilted></feature>
            <threshold>1.1123640462756157e-02</threshold>
            <left_val>-2.1824249625205994e-01</left_val>
            <right_val>6.3964682817459106e-01</right_val></_></_>
        <_>
          <!-- tree 7 -->
          <_>
            <!-- root node -->
            <feature>
              <rects>
                <_>
                  3 17 20 6 -1.</_>
                <_>
                  3 17 10 6 2.</_></rects>
              <tilted>0</tilted></feature>
            <threshold>2.8985668905079365e-03</threshold>
            <left_val>-3.5465091466903687e-01</left_val>
            <right_val>2.8519091010093689e-01</right_val></_></_>
        <_>
          <!-- tree 8 -->
          <_>
            <!-- root node -->
            <feature>
              <rects>
                <_>
                  5 12 8 4 -1.</_>
                <_>
                  4 13 8 2 2.</_></rects>
              <tilted>1</tilted></feature>
            <threshold>-7.1786330081522465e-03</threshold>
            <left_val>5.0570118427276611e-01</left_val>
            <right_val>-2.5862780213356018e-01</right_val></_></_></trees>
      <stage_threshold>-7.9869967699050903e-01</stage_threshold>
      <parent>12</parent>
      <next>-1</next></_></stages></xml>
</opencv_storage>
